1 100
</s> -0.0021577 0.0020577 -0.00141 -0.001916 0.0019418 0.0012677 0.0026609 0.0037318 0.0024891 0.0011801 -0.0036975 0.00042268 0.0033161 0.0017481 0.0019457 0.00030243 0.0013349 7.8987e-05 0.0021363 -0.0015858 0.00055658 0.00092747 0.00020605 -0.0018253 -0.0014307 -0.002107 0.00013539 0.0005989 0.00075878 0.00072506 -0.00050527 -0.0024809 -0.0015795 0.00033563 -0.0028201 0.00039344 -0.00074202 -0.002406 -5.8816e-06 -0.0017025 0.0020513 0.00065289 -0.0014552 -0.00126 -0.0011779 0.001152 -0.0016859 -0.00029611 -0.0020564 -2.5047e-05 -0.0031559 -0.0033404 0.0028988 0.0012899 -0.00032537 -0.0014781 -0.000407 -0.0011273 -0.0029035 0.0012435 -0.0053172 0.0031784 0.0016394 -4.5629e-05 0.00045737 0.0023151 0.00099289 -0.00051369 0.00031835 3.4479e-06 -0.00022025 0.0012602 0.00068598 -0.0015797 -0.00020266 0.00012677 0.0017771 0.0011267 0.00043927 0.00023719 -0.00078557 -0.00094017 -0.0002254 0.0010554 -0.0011764 -0.0034645 -0.00030305 0.0017814 -0.0028195 -0.002161 0.00083435 0.0031852 0.00026566 -0.00056445 0.00075778 -0.0016357 0.0022531 0.0026179 0.00014723 0.00029175 
